booster[0]:
0:[f29<2.00001001] yes=1,no=2,missing=2
	1:[f109<2.00001001] yes=3,no=4,missing=4
		3:leaf=0.557894766
		4:[f67<2.00001001] yes=7,no=8,missing=8
			7:leaf=0.242553204
			8:leaf=-0.595593095
	2:[f56<2.00001001] yes=5,no=6,missing=6
		5:[f21<2.00001001] yes=9,no=10,missing=10
			9:leaf=-0.594312787
			10:leaf=0.533333361
		6:[f60<2.00001001] yes=11,no=12,missing=12
			11:leaf=-0.58518523
			12:leaf=0.57052362
booster[1]:
0:[f29<2.00001001] yes=1,no=2,missing=2
	1:[f109<2.00001001] yes=3,no=4,missing=4
		3:leaf=0.4361763
		4:[f67<2.00001001] yes=7,no=8,missing=8
			7:leaf=0.178685576
			8:leaf=-0.4607777
	2:[f21<2.00001001] yes=5,no=6,missing=6
		5:[f27<2.00001001] yes=9,no=10,missing=10
			9:leaf=0.460993111
			10:leaf=-0.276318461
		6:leaf=0.468871444
booster[2]:
0:[f29<2.00001001] yes=1,no=2,missing=2
	1:[f109<2.00001001] yes=3,no=4,missing=4
		3:leaf=0.375119895
		4:[f87<2.00001001] yes=7,no=8,missing=8
			7:leaf=0.398808211
			8:leaf=-0.395200908
	2:[f56<2.00001001] yes=5,no=6,missing=6
		5:[f21<2.00001001] yes=9,no=10,missing=10
			9:leaf=-0.420767218
			10:leaf=0.35382548
		6:[f60<2.00001001] yes=11,no=12,missing=12
			11:leaf=-0.41420272
			12:leaf=0.382028222
booster[3]:
0:[f29<2.00001001] yes=1,no=2,missing=2
	1:[f109<2.00001001] yes=3,no=4,missing=4
		3:leaf=0.336961627
		4:[f67<2.00001001] yes=7,no=8,missing=8
			7:leaf=0.162825078
			8:leaf=-0.363649756
	2:[f23<2.00001001] yes=5,no=6,missing=6
		5:[f36<2.00001001] yes=9,no=10,missing=10
			9:leaf=-0.375322014
			10:leaf=-0.796177089
		6:[f24<2.00001001] yes=11,no=12,missing=12
			11:leaf=-0.448040783
			12:leaf=0.378991574
booster[4]:
0:[f29<2.00001001] yes=1,no=2,missing=2
	1:[f109<2.00001001] yes=3,no=4,missing=4
		3:leaf=0.309557945
		4:[f39<2.00001001] yes=7,no=8,missing=8
			7:leaf=-0.350704819
			8:leaf=-0.0279991869
	2:[f23<2.00001001] yes=5,no=6,missing=6
		5:[f36<2.00001001] yes=9,no=10,missing=10
			9:leaf=-0.348102778
			10:leaf=-0.51200211
		6:[f24<2.00001001] yes=11,no=12,missing=12
			11:leaf=-0.408176273
			12:leaf=0.354143769
